{
    "Ravenclaw": {
        "bias": 23.167992261724052,
        "weights": [
            1.4157533886274688e-05,
            -0.0020975416447823617,
            0.09074386781087951,
            0.04195877787933873,
            0.0026447688173084766,
            0.010082160358511772,
            0.013354153527801019,
            0.00143160030970671,
            0.007146361262477852,
            0.041220790607978466,
            0.1320379863399735,
            -0.0001465565587761671
        ]
    },
    "Slytherin": {
        "bias": -23.63830921785549,
        "weights": [
            -7.973357211830859e-08,
            -0.002035733132232569,
            -0.170759692328346,
            -0.39127195828673933,
            -0.0005246380159637228,
            -0.004880454427501473,
            -0.0037428089209678543,
            0.008236620710518791,
            0.18940662955686283,
            -0.06403988494794072,
            -0.06184155350249872,
            -0.005734729545110105
        ]
    },
    "Gryffindor": {
        "bias": 7.632945500201167,
        "weights": [
            -2.1713989049732675e-05,
            0.00045561370056047357,
            -0.1824310026772688,
            0.11868910869907418,
            -0.00019914360047629,
            0.00771606363272865,
            -0.17150013938849232,
            -0.02212667599122004,
            -0.05264261772574296,
            0.0059866192780632195,
            -0.041588148361709674,
            0.008752066108476888
        ]
    },
    "Hufflepuff": {
        "bias": -19.293924670550116,
        "weights": [
            6.4926287023154415e-06,
            0.003690396340269839,
            0.27934706468430925,
            0.21351081496373392,
            -0.0020269906527313904,
            -0.014109579279510787,
            0.17602211669427453,
            0.014195235968755632,
            -0.13135908448648,
            -0.019200149857037274,
            -0.03405882196566078,
            -0.003380310958534988
        ]
    }
}