{
    "Ravenclaw": {
        "bias": 23.16799226172406,
        "weights": [
            1.415753388627468e-05,
            -0.0020975416447823613,
            0.09074386781087958,
            0.041958777879338646,
            0.0026447688173084753,
            0.010082160358511784,
            0.013354153527801109,
            0.0014316003097066992,
            0.007146361262477891,
            0.04122079060797849,
            0.1320379863399735,
            -0.00014655655877617328
        ]
    },
    "Slytherin": {
        "bias": -23.63830921785547,
        "weights": [
            -7.973357211832002e-08,
            -0.0020357331322325687,
            -0.1707596923283459,
            -0.3912719582867394,
            -0.000524638015963724,
            -0.0048804544275014615,
            -0.0037428089209677264,
            0.008236620710518762,
            0.18940662955686283,
            -0.06403988494794066,
            -0.061841553502498744,
            -0.005734729545110114
        ]
    },
    "Gryffindor": {
        "bias": 7.632945500201176,
        "weights": [
            -2.1713989049732658e-05,
            0.0004556137005604741,
            -0.18243100267726878,
            0.11868910869907409,
            -0.00019914360047629088,
            0.007716063632728664,
            -0.17150013938849223,
            -0.02212667599122006,
            -0.05264261772574293,
            0.005986619278063176,
            -0.0415881483617097,
            0.008752066108476885
        ]
    },
    "Hufflepuff": {
        "bias": -19.293924670550133,
        "weights": [
            6.492628702315434e-06,
            0.0036903963402698386,
            0.27934706468430937,
            0.21351081496373384,
            -0.002026990652731391,
            -0.014109579279510778,
            0.17602211669427456,
            0.014195235968755632,
            -0.13135908448648004,
            -0.019200149857037253,
            -0.03405882196566081,
            -0.0033803109585349924
        ]
    }
}