{
    "Ravenclaw": {
        "bias": 26.509724058150184,
        "weights": [
            1.503652131225103e-05,
            -0.002336435249868698,
            0.10593414239716811,
            0.02672285480003139,
            0.0025736476276892713,
            0.010396424381268227,
            0.013511617466676442,
            0.00010484761718195685,
            -0.004449060802627707,
            0.050323513615487765,
            0.14167007577838434,
            0.00019457645176292878
        ]
    },
    "Slytherin": {
        "bias": -27.51098744176083,
        "weights": [
            -6.393798741309909e-08,
            -0.0023007747401540724,
            -0.1716124400945207,
            -0.41577691057224586,
            -0.0005366581518097496,
            -0.0053608748579696405,
            -0.015600268935069923,
            0.011519847988458039,
            0.19579800313595563,
            -0.10093676392646644,
            -0.0636673799192473,
            -0.006272460862371858
        ]
    },
    "Gryffindor": {
        "bias": 7.862031416618131,
        "weights": [
            -3.184546808040379e-05,
            0.0004963273125773185,
            -0.21136605107252693,
            0.1654112799233719,
            -0.00017223183066219578,
            0.008392365427704012,
            -0.1596198336109644,
            -0.02195467235556908,
            -0.05320732911857682,
            0.041323862731622085,
            -0.03835175294930323,
            0.008934707167300581
        ]
    },
    "Hufflepuff": {
        "bias": -20.190288086046483,
        "weights": [
            8.813963671299207e-06,
            0.004031464481847088,
            0.31408081655415226,
            0.21989192625640092,
            -0.0021727447475515067,
            -0.015107442142289087,
            0.19166874063334835,
            0.013373942142279186,
            -0.11443936509214199,
            -0.03159018302055561,
            -0.04049600795578816,
            -0.00321030489960729
        ]
    }
}