{
    "Ravenclaw": {
        "bias": 23.1696537657933,
        "weights": [
            1.4150026902984664e-05,
            -0.0020973506163029496,
            0.09074091611888685,
            0.04196657248531122,
            0.00264441443794256,
            0.010081104949545523,
            0.013360262343488638,
            0.0014308754335107064,
            0.007143344903036102,
            0.04120943436553173,
            0.13203697524906774,
            -0.00014647690600866348
        ]
    },
    "Slytherin": {
        "bias": -23.634881999120722,
        "weights": [
            -8.258883233040615e-08,
            -0.002035526616480845,
            -0.1707311430514952,
            -0.3912140067875729,
            -0.0005247669199125991,
            -0.004879916078177586,
            -0.0037488189881817896,
            0.008234534704326812,
            0.18937004654305475,
            -0.06400235769902554,
            -0.061838045716124855,
            -0.005733446821597843
        ]
    },
    "Gryffindor": {
        "bias": 7.6277885735809505,
        "weights": [
            -2.1703601468256557e-05,
            0.0004556844655128043,
            -0.18241967936593623,
            0.11867936181084536,
            -0.00019911243366547957,
            0.007714384094612682,
            -0.17147786145275454,
            -0.022121683515414492,
            -0.052685115550156925,
            0.0059723502660253966,
            -0.041591722964172004,
            0.008750558247698168
        ]
    },
    "Hufflepuff": {
        "bias": -19.292447920874952,
        "weights": [
            6.494813954146236e-06,
            0.003689948154750022,
            0.2793145042767926,
            0.21346535138885583,
            -0.002026571652454993,
            -0.014107181495778559,
            0.17599533679391058,
            0.014193516698660926,
            -0.13130837412933175,
            -0.019165525083759447,
            -0.03405687134266737,
            -0.0033796160008436925
        ]
    }
}