{
    "Ravenclaw": {
        "bias": -1.2960970599366908,
        "weights": [
            6.441155462242912e-06,
            -0.0015641646362179477,
            0.07074943008738926,
            0.057378401183042285,
            0.0022579318758864154,
            0.00834432332125963,
            0.016977432712284656,
            0.0025182677688043325,
            0.029389944792128298,
            0.02330941250561446,
            0.1079237889046166,
            -0.00025862497158865496
        ]
    },
    "Slytherin": {
        "bias": -1.7375221463254789,
        "weights": [
            2.5252753074512534e-07,
            -0.0013928875539967788,
            -0.13937653102130962,
            -0.28752858312614443,
            -0.0004663397477521507,
            -0.003564112983647059,
            0.009485333843945459,
            0.004061508837630469,
            0.15824117092610435,
            -0.0157242155303013,
            -0.049547503725865624,
            -0.004236680436375672
        ]
    },
    "Gryffindor": {
        "bias": -1.7965762001410472,
        "weights": [
            -7.173118156515931e-06,
            0.0004197076321649678,
            -0.13253325001454702,
            0.05967874912380835,
            -0.0002422214492408175,
            0.005916290188878857,
            -0.16631010850798575,
            -0.019067635107661875,
            -0.0718275594627036,
            -0.03553624140620038,
            -0.042905109106215075,
            0.007638014529322746
        ]
    },
    "Hufflepuff": {
        "bias": -0.977977208567176,
        "weights": [
            3.35407963260762e-06,
            0.0025235709695831964,
            0.19099840644074859,
            0.16085379885451828,
            -0.0014909778856154476,
            -0.010285219938408545,
            0.12505728471201308,
            0.011459733550038922,
            -0.11947798824927544,
            0.008389559350147442,
            -0.02036477646648319,
            -0.002834036912053873
        ]
    }
}