{
    "Ravenclaw": {
        "bias": 22.827834212161925,
        "weights": [
            2.2137005921375517e-05,
            -0.0019265376502201356,
            0.054958041378492584,
            0.04408802715105606,
            0.002353884949681432,
            0.011334344964323954,
            -0.06199668278497475,
            -0.0015931159174517593,
            -0.04543989794321725,
            0.2240447980977016,
            0.12072653509003403,
            0.000671240166752984
        ]
    },
    "Slytherin": {
        "bias": -28.12498821351053,
        "weights": [
            -2.8311131449354307e-06,
            -0.0017406355461953044,
            -0.13805027823436708,
            -0.365683727903932,
            -0.0011045205345278845,
            -0.005024081493102437,
            -0.007463959374927906,
            0.010911544648603451,
            0.23596500433297485,
            -0.17449563267403087,
            -0.06775062722031344,
            -0.004521458561752068
        ]
    },
    "Gryffindor": {
        "bias": 1.9756840644833726,
        "weights": [
            -1.4433189920794829e-05,
            0.00017143140050549787,
            -0.1811494171691969,
            0.0915042505615416,
            -0.00014212323609509247,
            0.007268509602414276,
            -0.12481292051100962,
            -0.014317280171205362,
            -0.1563454347684799,
            0.5062301312947936,
            -0.0324167628220008,
            0.005733560882165052
        ]
    },
    "Hufflepuff": {
        "bias": -17.464818029487738,
        "weights": [
            -5.95096641391344e-06,
            0.003646537723231189,
            0.30054999579794256,
            0.21634020953837313,
            -0.0024561882865998053,
            -0.013496363531462418,
            0.20107109949472926,
            0.016109391435205025,
            -0.08176192506700304,
            0.18654396099157436,
            -0.017111551528654446,
            -0.002186143898661187
        ]
    }
}