{
    "Ravenclaw": {
        "bias": 42.167741984808046,
        "weights": [
            1.7864145049375187e-05,
            -0.0027482283956482205,
            0.15157313072078468,
            -0.008396429427327497,
            0.0019466697366867913,
            0.010575357000459397,
            0.016690748596855452,
            -0.0068615870804275645,
            0.017431741925827398,
            0.06994288347142899,
            0.1793104023934959,
            0.001547318684681786
        ]
    },
    "Slytherin": {
        "bias": -50.01194434249729,
        "weights": [
            7.346877075809416e-06,
            -0.0030140514861927248,
            -0.10264694805033482,
            -0.4609852009698649,
            -0.0007519774407814158,
            -0.006217419254850944,
            -0.11785565735738515,
            0.027141876581287562,
            0.2455124030187402,
            -0.15838303242647392,
            -0.08847878957835156,
            -0.004615693103459597
        ]
    },
    "Gryffindor": {
        "bias": 2.737438273785012,
        "weights": [
            -5.4801061942579544e-05,
            0.0003874372637636435,
            -0.35809434822917163,
            0.37230531873929296,
            -0.0004909359513144994,
            0.011669112721315142,
            -0.06085745757749056,
            -0.016519357138988496,
            -0.18261672629115183,
            0.07024910849494696,
            -0.03134905809341901,
            0.009494779476098605
        ]
    },
    "Hufflepuff": {
        "bias": -13.78080078644659,
        "weights": [
            1.4680912946257185e-05,
            0.0041585991919119375,
            0.38271264810715444,
            0.2480284666797697,
            -0.0023137488962182307,
            -0.017200673611289737,
            0.208052352414809,
            0.003097651996567861,
            -0.039914944665497464,
            0.010978694736358121,
            -0.05649934370110669,
            -0.003998637647655388
        ]
    }
}