{
    "Ravenclaw": {
        "bias": -2.415776479697393,
        "weights": [
            1.5036521312251044e-05,
            -0.002336435249868699,
            0.105934142397168,
            0.02672285480003151,
            0.002573647627689273,
            0.010396424381268213,
            0.013511617466676359,
            0.00010484761718196647,
            -0.0044490608026277485,
            0.05032351361548774,
            0.14167007577838436,
            0.0001945764517629358
        ]
    },
    "Slytherin": {
        "bias": -3.164165959306442,
        "weights": [
            -6.393798741307787e-08,
            -0.002300774740154073,
            -0.17161244009452087,
            -0.41577691057224575,
            -0.0005366581518097484,
            -0.0053608748579696535,
            -0.015600268935070083,
            0.011519847988458084,
            0.1957980031359557,
            -0.10093676392646647,
            -0.06366737991924729,
            -0.006272460862371844
        ]
    },
    "Gryffindor": {
        "bias": -3.2925388851835677,
        "weights": [
            -3.184546808040378e-05,
            0.0004963273125773179,
            -0.21136605107252693,
            0.16541127992337198,
            -0.00017223183066219494,
            0.008392365427703998,
            -0.15961983361096443,
            -0.021954672355569076,
            -0.05320732911857681,
            0.04132386273162218,
            -0.03835175294930321,
            0.008934707167300588
        ]
    },
    "Hufflepuff": {
        "bias": -2.0211732210409488,
        "weights": [
            8.813963671299223e-06,
            0.004031464481847088,
            0.3140808165541522,
            0.21989192625640097,
            -0.0021727447475515063,
            -0.015107442142289096,
            0.19166874063334832,
            0.013373942142279174,
            -0.11443936509214182,
            -0.031590183020555634,
            -0.040496007955788095,
            -0.0032103048996072847
        ]
    }
}